Language model created by QuickLM on Fri Sep 30 00:32:39 EDT 2022
Copyright (c) 1996-2010 Carnegie Mellon University and Alexander I. Rudnicky

The model is in standard ARPA format, designed by Doug Paul while he was at MITRE.

The code that was used to produce this language model is available in Open Source.
Please visit http://www.speech.cs.cmu.edu/tools/ for more information

The (fixed) discount mass is 0.5. The backoffs are computed using the ratio method.
This model based on a corpus of 30 sentences and 27 words

\data\
ngram 1=27
ngram 2=68
ngram 3=67

\1-grams:
-0.9669 </s> -0.3010
-0.9669 <s> -0.2149
-2.4440 AA -0.2931
-1.7451 AE -0.2426
-1.6659 AH -0.2867
-2.4440 AW -0.2931
-2.4440 AX -0.2514
-1.9669 AY -0.2444
-1.9669 B -0.2408
-2.1430 D -0.2916
-2.1430 ER -0.2514
-1.8420 EY -0.2514
-2.4440 G -0.2947
-1.8420 IH -0.2317
-2.1430 IY -0.2408
-1.4898 K -0.2736
-1.8420 L -0.2444
-2.1430 M -0.2900
-1.7451 N -0.2408
-2.4440 OW -0.2514
-2.1430 P -0.2497
-1.8420 R -0.2802
-1.6659 S -0.2354
-2.1430 SH -0.2916
-1.9669 T -0.2786
-2.1430 V -0.2851
-1.8420 Z -0.2514

\2-grams:
-1.7782 <s> AY -0.2218
-1.4771 <s> B -0.1249
-1.7782 <s> D -0.1761
-1.7782 <s> EY 0.0000
-1.7782 <s> G 0.0000
-1.4771 <s> IH -0.1761
-1.7782 <s> IY -0.1761
-0.8239 <s> K 0.0000
-1.7782 <s> M -0.1761
-1.7782 <s> OW 0.0000
-1.7782 <s> P -0.1761
-1.7782 <s> R -0.2430
-1.3010 <s> S -0.1249
-1.4771 <s> SH 0.0000
-1.7782 <s> T -0.2218
-1.4771 <s> V 0.0000
-0.3010 AA N -0.1461
-0.5229 AE </s> -0.3010
-1.0000 AE B -0.2218
-1.0000 AE M -0.1761
-0.4771 AH L 0.0000
-0.7782 AH N -0.1461
-0.3010 AW N -0.2553
-0.3010 AX </s> -0.3010
-0.4771 AY </s> -0.3010
-0.7782 AY Z 0.0000
-0.7782 B </s> -0.3010
-0.4771 B AH -0.1249
-0.6021 D ER 0.0000
-0.6021 D Z 0.0000
-0.3010 ER </s> -0.3010
-0.3010 EY </s> -0.3010
-0.3010 G R -0.2430
-0.6021 IH </s> -0.3010
-0.9031 IH N -0.2553
-0.9031 IH S -0.2218
-0.6021 IY </s> -0.3010
-0.6021 IY S -0.2218
-1.2553 K AA 0.0000
-0.7782 K AE 0.0000
-1.2553 K AY -0.1249
-0.9542 K EY 0.0000
-0.9542 K R -0.1761
-0.4260 L </s> -0.3010
-0.9031 L Z 0.0000
-0.6021 M AE -0.1461
-0.6021 M P -0.1761
-0.5229 N </s> -0.3010
-1.0000 N D -0.1761
-1.0000 N Z 0.0000
-0.3010 OW </s> -0.3010
-0.6021 P </s> -0.3010
-0.6021 P AX 0.0000
-0.9031 R AE -0.1461
-0.9031 R AW 0.0000
-0.9031 R AY -0.1249
-0.9031 R IH -0.1761
-0.7782 S </s> -0.3010
-1.0792 S ER 0.0000
-1.0792 S IH -0.1761
-0.7782 S T -0.1249
-0.3010 SH AH -0.2218
-0.7782 T AH -0.1249
-0.7782 T IY -0.1761
-0.7782 T S -0.2218
-0.6021 V AH -0.1249
-0.6021 V EY 0.0000
-0.3010 Z </s> -0.3010

\3-grams:
-0.3010 <s> AY Z
-0.3010 <s> B AH
-0.3010 <s> D ER
-0.3010 <s> EY </s>
-0.3010 <s> G R
-0.6021 <s> IH N
-0.6021 <s> IH S
-0.3010 <s> IY </s>
-1.2553 <s> K AA
-0.7782 <s> K AE
-1.2553 <s> K AY
-0.9542 <s> K EY
-0.9542 <s> K R
-0.3010 <s> M AE
-0.3010 <s> OW </s>
-0.3010 <s> P AX
-0.3010 <s> R AE
-0.7782 <s> S ER
-0.7782 <s> S IH
-0.7782 <s> S T
-0.3010 <s> SH AH
-0.3010 <s> T IY
-0.6021 <s> V AH
-0.6021 <s> V EY
-0.3010 AA N </s>
-0.3010 AE B </s>
-0.3010 AE M P
-0.4260 AH L </s>
-0.9031 AH L Z
-0.3010 AH N </s>
-0.3010 AW N D
-0.3010 AY Z </s>
-0.3010 B AH L
-0.3010 D ER </s>
-0.3010 D Z </s>
-0.3010 G R AW
-0.3010 IH N Z
-0.3010 IH S T
-0.3010 IY S </s>
-0.3010 K AA N
-0.7782 K AE </s>
-0.7782 K AE B
-0.7782 K AE M
-0.3010 K AY </s>
-0.3010 K EY </s>
-0.6021 K R AY
-0.6021 K R IH
-0.3010 L Z </s>
-0.3010 M AE </s>
-0.3010 M P </s>
-0.3010 N D Z
-0.3010 N Z </s>
-0.3010 P AX </s>
-0.3010 R AE </s>
-0.3010 R AW N
-0.3010 R AY </s>
-0.3010 R IH </s>
-0.3010 S ER </s>
-0.3010 S IH </s>
-0.6021 S T AH
-0.6021 S T S
-0.3010 SH AH N
-0.3010 T AH L
-0.3010 T IY S
-0.3010 T S </s>
-0.3010 V AH L
-0.3010 V EY </s>

\end\
